svm_type c_svc
kernel_type rbf
gamma 0.5
nr_class 5
total_sv 81
rho 0.1069000888484728 -0.11269457848082265 -0.20370149332380474 -0.31186901821426283 -0.40848601169621612 -0.22663406741357944 -0.48632781150961768 0.037957355213819988 -0.23748084566205871 -0.33778172637219039
label 2 1 0 -1 3
nr_sv 24 22 13 16 6
SV
4.9616474669270172 8 8 0.57284547900470417 2:-1 3:-1 4:-1 
0 0 0.23335693377098296 0 2:1 3:-1 4:-1 5:1 6:2 
0 0.29318474955002854 8 0.39243742035917728 2:1 3:-1 4:-1 5:1 6:2 
5.216652597215127 8 1.91312151704551 0.27811196936153659 1:1 3:-1 4:-1 5:1 6:1 
0 0 0.50200745484215592 0 1:-1 3:-1 4:-1 5:1 6:2 
0 0 1.6280371425463356 0 2:-1 3:-1 4:1 6:2 
1.2309004184901167 0.44551636628367247 8 0.29315838441543218 2:-1 3:-1 4:1 6:2 
1.6071168397744129 0.53997083542283741 0.3483346886812706 0.30884444474488598 1:1 3:-1 4:2 6:2 
0 0 0.37271865664038373 0 1:1 2:-1 3:-1 6:2 
0.35140850383629435 0.25389855793012028 0.42874289266271431 0.16045629890529109 1:1 3:-1 4:-1 6:2 
2.6001074558103174 0.90119542507146355 0.91869724972106981 8 1:-1 3:1 4:2 5:3 
0.95661424337702727 0.35924865571862724 7.9484603366376296 0.24883275042359299 1:1 2:-1 3:-1 6:2 
2.2812598854646682 0.76987324220888542 0.68142107708612909 0.60492194304979419 2:2 3:-1 4:1 6:2 
0 0 8 0 1:1 3:-1 4:-1 5:1 6:2 
0 1.3482044918587157 6.9697840302472116 0 1:1 3:-1 4:-1 5:1 6:2 
0.98621982843273337 0.74915503690519869 0.67922340909910028 0.68009399009036842 2:-1 3:1 4:-1 6:2 
0.66728656886131432 0.45431187605226164 7.9462899815997661 0.69055750060186205 1:-1 3:-1 4:-1 5:1 6:2 
2.1696005017148123 0.87421267321390006 0.69447590192608577 1.1286927939520996 1:1 2:-1 4:-1 5:2 6:2 
0.65388244769288673 0.49766619508448628 0.62567567057860507 0.38637712067951197 1:1 3:-1 4:2 5:1 6:2 
0 0 1.8938354974618494 0 2:-1 3:-1 4:-1 6:2 
0 0 8 0 2:-1 3:-1 4:-1 6:2 
0.96724727460899385 2.0397167802735723 0.77396451676613331 0.45835752258465345 1:-1 3:-1 4:1 5:1 6:2 
2.8356378617906741 0.34894257416589608 8 0.089598744477077552 2:-1 3:-1 4:-1 6:2 
1.5590190288067713 0.4376095927520558 0.29888765346365004 0.13037996439390143 2:1 3:-1 4:-1 6:2 
-0.63653445549181464 0.36987023700075738 0.4801001421942554 0.5227903606696791 2:-1 3:1 4:-1 5:2 6:1 
-1.5229025097983342 2.6661423056629125 0.17780450302610321 0.32504594234607531 1:1 2:-1 4:-1 5:2 6:1 
-0.20800064146771305 0.33681089867885872 0.46054103808878927 0.10201172913652876 1:-1 3:-1 4:1 5:3 6:1 
-2.6528855400552289 5.6896029699267903 2.2756530042630265 0.10268190803333287 1:1 3:-1 4:-1 6:1 
-1.3339964729248404 2.3337879153213992 8 0.24385470277977647 2:-1 3:-1 4:1 6:1 
-0.55444317694888945 0.30627021788155684 0.5166477896299061 0.32893539647811998 2:-1 3:-1 4:1 5:3 6:1 
-0.50673135528814861 0.2820371593952018 2.3100755658833751 1.9183778085340915 1:-1 2:-1 4:-1 5:2 6:1 
-0.79118420439919801 0.14154652553487809 1.660827430384334 0.18044894048823024 1:1 2:-1 3:-1 6:1 
-0 0 0.73457361733153914 0 1:1 3:-1 4:2 5:1 
-1.0006954668812271 0.83094414866184296 1.3007814591355857 0.14344342225573642 1:-1 3:-1 4:-1 5:1 
-0.24664842546943017 2.1935908426331898 7.7071154854345698 0.33867214452382621 1:1 3:-1 4:2 5:1 
-1.545775912273248 1.8056144451044329 0.88575660057903371 0.35935269702821304 2:1 3:-1 4:-1 6:1 
-2.1894380382617444 0.6232501610452309 0.67332296476079623 0.45223273619478782 2:2 3:-1 4:1 6:1 
-1.8288704295052782 1.8782337423273061 0.63458941489736875 0.28022857790156336 1:1 3:-1 4:2 6:1 
-0.8539282021565634 0.56471459130909685 0.73910253218702493 0.49021490163674619 1:1 3:2 4:3 5:3 6:1 
-0.62275680208804607 2.8394049894377105 0.56253988153576739 0.35845669213790665 1:-1 3:-1 4:1 5:1 
-1.7007841115755629 1.4539637163516532 0.30236148402320701 0.16795294342121639 1:1 2:-1 3:-1 4:-1 5:2 6:1 
-2.359335262133778 0.5163958641702574 1.321231366720097 2.1777026785367899 1:-1 3:1 4:2 5:3 6:1 
-0.68860988437904169 0.51866093153407533 8 0.34180435736598508 1:-1 3:-1 4:1 5:3 6:2 
-0 0 4.1906616298697559 0 2:-1 3:-1 4:-1 6:1 
-5.1405029209062212 1.2222805947382585 8 0.21067285916096162 2:-1 3:-1 4:-1 6:1 
-2.6605771107988554 7.4472222688896021 2.4053244770550086 0.2404907743997699 1:1 3:-1 4:-1 5:1 
-0.31526615568394761 -0.57008213331999524 0.42705845234894763 0.30659893874767347 1:1 2:-1 3:-1 4:-1 
-1.0466430472853152 -3.6650640223829489 2.4491526308394369 0.6368273443315553 1:1 3:-1 4:2 
-2.3926997766170772 -3.6066558935828881 1.57140384973921 0.68786096096848015 1:-1 3:-1 4:1 5:1 6:1 
-0.74638018875131407 -3.8369913905400463 0.68457324153420018 0.52404085291937441 1:1 2:-1 4:-1 5:2 
-0.82876573416647858 -2.4202414717944594 0.8560529211147172 0.57373251836354877 2:1 3:-1 4:-1 
-0.58384803041642208 -2.5658130281800942 2.0590002362855744 0.43452348716447486 2:-1 3:-1 4:1 
-0.99426605918540545 -1.4150908083416542 0.92131110245263714 0.87054619142916745 1:1 2:2 4:-1 5:2 
-1.9807705848894011 -0.12807004799253116 0 0 1:1 3:-1 4:-1 5:1 6:1 
-7.9983015926683931 -8 2.5607821802222737 0.52966985280928836 1:1 3:-1 4:-1 5:1 6:1 
-0.87050370838398128 -1.0065015456335364 0.78307004689377713 0.76937264225747559 1:2 3:1 4:-1 5:2 
-0 -5.220642292694941 7.4216884112422141 0 1:1 3:-1 4:-1 
-0.79348859746546607 -0 2.5414941254173407 0 2:-1 3:-1 4:-1 
-7.7617735769785199 -1.5851918911419178 7.3796822930978685 0.33257888789379236 2:-1 3:-1 4:-1 
-8 -0.93586195960835927 -0.63770350094582573 0.45927010367056692 2:1 3:-1 4:-1 5:1 6:2 
-1.2129232123387246 -3.0455677506134702 -1.1405339613073515 0.84052037085736675 1:-1 2:-1 4:-1 5:2 
-8 -0 -0 0 2:-1 3:-1 4:-1 6:2 
-8 -1.680744372523769 -0.0060638942130000345 0.24753002780577407 1:1 2:-1 3:-1 6:2 
-2.9272318728588873 -8 -2.2922770643761261 0 2:-1 3:-1 4:-1 6:1 
-2.216107570874553 -8 -2.5598637293655049 0.27835052191741649 2:-1 3:-1 4:1 6:1 
-8 -2.8299434392368745 -0 0.21893572018679033 2:-1 3:-1 4:-1 6:2 
-8 -0 -0 0 1:1 3:-1 4:-1 5:1 6:2 
-8 -0.97671033547198005 -0 0.31689825218608875 2:-1 3:-1 4:1 6:2 
-8 -1.4962445010697278 -1.9633139210859789 0.40911094382271285 1:1 3:-1 4:-1 5:1 6:2 
-1.2712323256461073 -8 -1.0156103600271384 0.66850663919175102 1:-1 3:-1 4:1 5:3 6:2 
-8 -1.1310945468603162 -0.48196640072637703 0.69523671521678609 1:-1 3:-1 4:-1 5:1 6:2 
-1.6044640757551938 -4.0415470157056195 -8 0.43655869034228612 1:1 3:-1 4:-1 
-7.186415757477512 -3.4498317369422371 -8 0.35911734689491615 2:-1 3:-1 4:-1 
-1.1759329467415172 -8 -2.6085916721169271 0.62889046277429206 1:1 3:-1 4:2 5:1 
-1.2627268490840886 -1.7514647289671903 -0.94934498702396897 0.75635766938096971 1:-1 3:1 4:2 5:2 6:2 
-1.3368178694766897 -2.4114843998034079 -0.94398191379534835 -1.3139704990359968 1:-1 2:-1 4:-1 5:2 6:2 
-1.4267415745069523 -0 -0 -0 1:-1 3:1 4:2 5:3 
-0.95630114291668034 -1.1392339011224506 -0.87532192409734766 -0.95953816963714822 1:-1 3:1 4:-1 5:2 6:2 
-1.5049058583672263 -1.4772816461608504 -1.3011663574678156 -1.2813385238349013 1:2 3:1 4:-1 5:2 6:2 
-7.8848363503836074 -2.8433677297292199 -1.2411349818598911 -1.410066182456978 1:-1 3:1 4:2 5:3 
-1.3140635313927338 -1.4140038962134081 -1.3041464996644279 -1.3503700892826931 1:1 2:2 4:-1 5:2 6:2 
