svm_type c_svc
kernel_type rbf
gamma 0.5
nr_class 5
total_sv 84
rho 0.11079247322682761 -0.16613467730745807 -0.034365305981329378 -0.062477073502858402 -0.46409703379809136 0.1192630380937148 -0.26366442237307519 0.30483205793263235 -0.034718402557459074 -0.24472225652233986
label 2 1 0 -1 3
nr_sv 23 24 15 16 6
SV
6.7106773958146988 8 8 0.77744303152360716 1:-0.333333 2:-1 3:-1 4:-1 5:-1 6:-1 
0 0 0.2516161897009665 0 1:-0.333333 2:0.333333 3:-1 4:-1 5:-0.333333 6:1 
0 0.21243402712487694 8 0.13136706927222822 1:-0.333333 2:0.333333 3:-1 4:-1 5:-0.333333 6:1 
8 8 4.2579501056634941 0.037828478268596311 1:0.333333 2:-0.333333 3:-1 4:-1 5:-0.333333 
0 0 0.39280515739513999 0 1:-1 2:-0.333333 3:-1 4:-1 5:-0.333333 6:1 
0 0 1.4969218874321664 0 1:-0.333333 2:-1 3:-1 5:-1 6:1 
0 0.070875822108883671 6.7933088993685535 0 1:-0.333333 2:-1 3:-1 5:-1 6:1 
1.1604207335366672 0.26769662930053523 0.016073978472848322 0.19561964920956607 1:0.333333 2:-0.333333 3:-1 4:0.5 5:-1 6:1 
0 0 0.32423246516116111 0 1:0.333333 2:-1 3:-1 4:-0.5 5:-1 6:1 
0 0.35610454636204386 0.7274247040838836 0 1:0.333333 2:-0.333333 3:-1 4:-1 5:-1 6:1 
2.7423346206909387 1.0816030551739539 1.4293198960767242 8 1:-1 2:-0.333333 3:0.333333 4:0.5 5:1 6:-1 
0.20325163643466407 0.051502693531293914 7.9913168119032756 0 1:0.333333 2:-1 3:-1 4:-0.5 5:-1 6:1 
1.6303775399272913 0.52451408284260881 0.44332253214206641 0.63807299209843704 1:-0.333333 2:1 3:-1 5:-1 6:1 
0 0 8 0 1:0.333333 2:-0.333333 3:-1 4:-1 5:-0.333333 6:1 
0 0.48430945624677685 4.7475836269543672 0 1:0.333333 2:-0.333333 3:-1 4:-1 5:-0.333333 6:1 
0.78855876928317437 0.48142473134910541 0.64603678565878087 0.92476965353063922 1:-0.333333 2:-1 3:0.333333 4:-1 5:-1 6:1 
0 0.26860955143396048 7.8930991348718278 1.5278170512505529 1:-1 2:-0.333333 3:-1 4:-1 5:-0.333333 6:1 
1.5155014234026376 0.67640910298952472 0.99561933976608019 2.7434394312648012 1:0.333333 2:-1 3:-0.333333 4:-1 5:0.333333 6:1 
0 0.29142323142308513 0.77218821271636606 0.26316004201250032 1:0.333333 2:-0.333333 3:-1 4:0.5 5:-0.333333 6:1 
0 0 2.1968811775840766 0 1:-0.333333 2:-1 3:-1 4:-1 5:-1 6:1 
0 0 8 0 1:-0.333333 2:-1 3:-1 4:-1 5:-1 6:1 
1.1297097083496306 1.3864794394983864 1.4448783104497287 0.25410757963339003 1:-1 2:-0.333333 3:-1 5:-0.333333 6:1 
2.5966591086909685 0.027567640174971313 8 0 1:-0.333333 2:-1 3:-1 4:-1 5:-1 6:1 
-0.63625005885776587 0.11908742180774883 0.61151210045690318 0.72964696328952572 1:-0.333333 2:-1 3:0.333333 4:-1 5:0.333333 
-0.86085477403045962 5.0344245214715215 0 0.43849769572792019 1:0.333333 2:-1 3:-0.333333 4:-1 5:0.333333 
-0 0.80868188563101084 0.30959805289196862 0 1:-1 2:-0.333333 3:-1 5:1 
-4.6159354742294294 8 2.4182592896602029 0.20128788847824675 1:0.333333 2:-0.333333 3:-1 4:-1 5:-1 
-0.37079202747266277 3.0383198326175629 8 0 1:-0.333333 2:-1 3:-1 5:-1 
-0 0 0.20279820704458471 0 1:-0.333333 2:-1 3:-1 5:1 
-0 0.37328936896876674 2.2683761746540587 1.5485838720013914 1:-1 2:-1 3:-0.333333 4:-1 5:0.333333 
-0 0 1.2825883194054268 0.018066498440786793 1:0.333333 2:-1 3:-1 4:-0.5 5:-1 
-0 0 0.24762196082949695 0 1:0.333333 2:-0.333333 3:-1 4:0.5 5:-0.333333 6:-1 
-1.7734036342864565 1.1453047064652548 2.5747859601784415 0 1:-1 2:-0.333333 3:-1 4:-1 5:-0.333333 6:-1 
-0 3.4151973698109743 8 0.38226501032034249 1:0.333333 2:-0.333333 3:-1 4:0.5 5:-0.333333 6:-1 
-0 0.4389014247655858 0 0 1:0.333333 2:-0.333333 3:-1 4:-1 5:-0.333333 6:-1 
-0.023958440452828234 4.9481659760952947 0.1157482103731627 0.26804803760802498 1:-0.333333 2:0.333333 3:-1 4:-1 5:-1 
-1.6423868294602655 0.66659094430084398 0.79870259846703018 0.4785619829169192 1:-0.333333 2:1 3:-1 5:-1 
-1.1224956225269811 1.9347772125168268 0.5199040056487727 0.15043070059650601 1:0.333333 2:-0.333333 3:-1 4:0.5 5:-1 
-0.73950743901737981 0.38668597370864755 0.88036534426508872 0.6343267277225827 1:0.333333 2:-0.333333 3:1 4:1 5:1 
-0.41279572094720174 3.7050458584392052 0.10177648924605945 0.33252616960486669 1:-1 2:-0.333333 3:-1 5:-0.333333 6:-1 
-2.9392814584762346 3.4537107531560975 0 0.078480980405803924 1:0.333333 2:-1 3:-1 4:-1 5:0.333333 
-1.969810565066777 0.24128969416293933 1.4481481922187092 2.0497359390475047 1:-1 2:-0.333333 3:0.333333 4:0.5 5:1 
-1.1876689840857095 0.99339144151345171 8 0.99436899212813912 1:-1 2:-0.333333 3:-1 5:1 6:1 
-0 0 2.4214987176881237 0 1:-0.333333 2:-1 3:-1 4:-1 5:-1 
-0 8 0 0 1:0.333333 2:-0.333333 3:-1 4:-1 5:-0.333333 6:-1 
-5.1157125119944551 0.98146636072306248 8 0.1114947048848022 1:-0.333333 2:-1 3:-1 4:-1 5:-1 
-3.0666373952260644 7.9458276437204773 4.9394685210547458 0 1:0.333333 2:-0.333333 3:-1 4:-1 5:-0.333333 6:-1 
-0.075342578025617099 -0.14397083513923095 0.61621305918990277 0.016958953494230211 1:0.333333 2:-1 3:-1 4:-1 5:-1 6:-1 
-0.63465271950140523 -5.0262235387832508 6.1425197885080074 0.5497060211670256 1:0.333333 2:-0.333333 3:-1 4:0.5 5:-1 6:-1 
-0 -2.4442109727935502 0 0 1:0.333333 2:-0.333333 3:-1 4:-1 5:-1 6:-1 
-2.0956821504153775 -6.2867613128986113 3.5542170449824337 0.93530633589463796 1:-1 2:-0.333333 3:-1 5:-0.333333 
-0.26260943350324295 -8 1.3494641172026078 0.34431491935868852 1:0.333333 2:-1 3:-0.333333 4:-1 5:0.333333 6:-1 
-0.12853127907791886 -4.5971775165710191 0.54353738874643676 0.18543118826395111 1:-0.333333 2:0.333333 3:-1 4:-1 5:-1 6:-1 
-0 -1.3477220331319575 0 0 1:0.333333 2:-0.333333 3:-1 4:-1 5:-0.333333 
-0 -2.0373173307394508 1.0197954759404111 0 1:-0.333333 2:-1 3:-1 5:-1 6:-1 
-0.7017257793722137 -2.0626930727807906 0.95859878419243605 0.75748739997954717 1:0.333333 2:1 3:-0.333333 4:-1 5:0.333333 6:-1 
-1.4522291196278356 -8 0 0 1:0.333333 2:-0.333333 3:-1 4:-1 5:-0.333333 
-7.9618612746827306 -8 3.802037793675288 0.62432180588954878 1:0.333333 2:-0.333333 3:-1 4:-1 5:-0.333333 
-0.6656701065325632 -0.099064996347042453 0.45373223185090372 0.63621717816271051 1:1 2:-0.333333 3:0.333333 4:-1 5:0.333333 6:-1 
-0 -5.8318393715340866 5.5372855168821769 0 1:0.333333 2:-0.333333 3:-1 4:-1 5:-1 6:-1 
-0.30272190801362292 -0 2.786916660354366 0 1:-0.333333 2:-1 3:-1 4:-1 5:-1 6:-1 
-7.8999276608074789 -1.7531774091562837 7.7187682009383582 0.30112756305703853 1:-0.333333 2:-1 3:-1 4:-1 5:-1 6:-1 
-8 -0.54646746508806421 -1.0304658865266485 0.38464870697968534 1:-0.333333 2:0.333333 3:-1 4:-1 5:-0.333333 6:1 
-1.3945959285164606 -4.2033745114001722 -2.1227325831141095 1.1042762929971037 1:-1 2:-1 3:-0.333333 4:-1 5:0.333333 6:-1 
-8 -0 -0 0 1:-0.333333 2:-1 3:-1 4:-1 5:-1 6:1 
-8 -1.4497966619523992 -0 0.018693781180826988 1:0.333333 2:-1 3:-1 4:-0.5 5:-1 6:1 
-4.3132591008955092 -8 -2.532330267812501 0 1:-0.333333 2:-1 3:-1 4:-1 5:-1 
-1.1650136639299766 -8 -3.1532060676778659 0 1:-0.333333 2:-1 3:-1 5:-1 
-8 -1.178827282602666 -0 0.00078923521092539163 1:-0.333333 2:-1 3:-1 4:-1 5:-1 6:1 
-8 -0 -0 0 1:0.333333 2:-0.333333 3:-1 4:-1 5:-0.333333 6:1 
-8 -0.41302706647206699 -0 0.202614005973455 1:-0.333333 2:-1 3:-1 5:-1 6:1 
-8 -1.2574628977284263 -1.390619831502997 0.91323213097123246 1:0.333333 2:-0.333333 3:-1 4:-1 5:-0.333333 6:1 
-1.5252381994569708 -8 -0.91757755114813144 0.89823170330615354 1:-1 2:-0.333333 3:-1 5:1 6:1 
-8 -1.0822000793907096 -0.075800752486825385 1.1739544513937594 1:-1 2:-0.333333 3:-1 4:-1 5:-0.333333 6:1 
-2.4191558906074384 -6.6607128889238467 -8 0.31579039646336765 1:0.333333 2:-0.333333 3:-1 4:-1 5:-1 6:-1 
-5.598401637187397 -2.4543885100751845 -8 0.086563060591330718 1:-0.333333 2:-1 3:-1 4:-1 5:-1 6:-1 
-1.0342785586629695 -8 -6.557622901634752 0.61972797372398225 1:0.333333 2:-0.333333 3:-1 4:0.5 5:-0.333333 6:-1 
-1.3706362361447844 -1.8948947804492391 -0.70273022055949796 1.2122480951188548 1:-1 2:-0.333333 3:0.333333 4:0.5 5:0.333333 6:1 
-2.9246825357877446 -2.4389445482589784 -0.97098259084800553 -2.165083306327785 1:-1 2:-1 3:-0.333333 4:-1 5:0.333333 6:1 
-1.0315530063140843 -0 -0 -0 1:-1 2:-0.333333 3:0.333333 4:0.5 5:1 6:-1 
-0.31510349225971213 -0.85297278422434852 -0.32832046392659175 -0.75394059105996891 1:-1 2:-0.333333 3:0.333333 4:-1 5:0.333333 6:1 
-2.1567805131875111 -1.1643547692024416 -0.90406108842330968 -1.0231466136506635 1:1 2:-0.333333 3:0.333333 4:-1 5:0.333333 6:1 
-7.9985216458943631 -2.9085837294499508 -1.1761272221173171 -1.5783745367457416 1:-1 2:-0.333333 3:0.333333 4:0.5 5:1 6:-1 
-1.0669837846209025 -1.0514663320376443 -0.97137999995215418 -1.410224786126518 1:0.333333 2:1 3:-0.333333 4:-1 5:0.333333 6:1 
